<?xml version="1.0"?>
<opencv_storage>
<cascade>
  <stageType>BOOST</stageType>
  <featureType>HAAR</featureType>
  <height>24</height>
  <width>24</width>
  <stageParams>
    <boostType>GAB</boostType>
    <minHitRate>9.9500000476837158e-01</minHitRate>
    <maxFalseAlarm>5.0000000000000000e-01</maxFalseAlarm>
    <weightTrimRate>9.4999999999999996e-01</weightTrimRate>
    <maxDepth>1</maxDepth>
    <maxWeakCount>100</maxWeakCount></stageParams>
  <featureParams>
    <maxCatCount>0</maxCatCount>
    <featSize>1</featSize>
    <mode>BASIC</mode></featureParams>
  <stageNum>12</stageNum>
  <stages>
    <!-- stage 0 -->
    <_>
      <maxWeakCount>1</maxWeakCount>
      <stageThreshold>9.3939393758773804e-01</stageThreshold>
      <weakClassifiers>
        <_>
          <internalNodes>
            0 -1 1 -2.3244145512580872e-01</internalNodes>
          <leafValues>
            -1. 9.3939393758773804e-01</leafValues></_></weakClassifiers></_>
    <!-- stage 1 -->
    <_>
      <maxWeakCount>2</maxWeakCount>
      <stageThreshold>8.7585888803005219e-02</stageThreshold>
      <weakClassifiers>
        <_>
          <internalNodes>
            0 -1 5 -3.9307852275669575e-03</internalNodes>
          <leafValues>
            1. -5.5555558204650879e-01</leafValues></_>
        <_>
          <internalNodes>
            0 -1 10 9.1396395873744041e-05</internalNodes>
          <leafValues>
            6.6065460443496704e-01 -9.1241413354873657e-01</leafValues></_></weakClassifiers></_>
    <!-- stage 2 -->
    <_>
      <maxWeakCount>2</maxWeakCount>
      <stageThreshold>3.0560959130525589e-03</stageThreshold>
      <weakClassifiers>
        <_>
          <internalNodes>
            0 -1 3 -6.4889155328273773e-03</internalNodes>
          <leafValues>
            -6.0000002384185791e-01 9.2857140302658081e-01</leafValues></_>
        <_>
          <internalNodes>
            0 -1 6 -1.4207793865352869e-03</internalNodes>
          <leafValues>
            -9.2551535367965698e-01 7.0957899093627930e-01</leafValues></_></weakClassifiers></_>
    <!-- stage 3 -->
    <_>
      <maxWeakCount>1</maxWeakCount>
      <stageThreshold>7.2972971200942993e-01</stageThreshold>
      <weakClassifiers>
        <_>
          <internalNodes>
            0 -1 14 2.3426389088854194e-04</internalNodes>
          <leafValues>
            7.2972971200942993e-01 -1.</leafValues></_></weakClassifiers></_>
    <!-- stage 4 -->
    <_>
      <maxWeakCount>2</maxWeakCount>
      <stageThreshold>6.5871663391590118e-02</stageThreshold>
      <weakClassifiers>
        <_>
          <internalNodes>
            0 -1 9 -6.6682568285614252e-04</internalNodes>
          <leafValues>
            -8.5714286565780640e-01 5.8974361419677734e-01</leafValues></_>
        <_>
          <internalNodes>
            0 -1 12 1.3469294644892216e-03</internalNodes>
          <leafValues>
            -5.2387189865112305e-01 9.3880790472030640e-01</leafValues></_></weakClassifiers></_>
    <!-- stage 5 -->
    <_>
      <maxWeakCount>2</maxWeakCount>
      <stageThreshold>-7.3663756251335144e-02</stageThreshold>
      <weakClassifiers>
        <_>
          <internalNodes>
            0 -1 11 -2.0310707390308380e-02</internalNodes>
          <leafValues>
            6.7567569017410278e-01 -8.7500000000000000e-01</leafValues></_>
        <_>
          <internalNodes>
            0 -1 23 1.7445583580411039e-05</internalNodes>
          <leafValues>
            8.0133622884750366e-01 -6.8576496839523315e-01</leafValues></_></weakClassifiers></_>
    <!-- stage 6 -->
    <_>
      <maxWeakCount>2</maxWeakCount>
      <stageThreshold>-1.7885878682136536e-02</stageThreshold>
      <weakClassifiers>
        <_>
          <internalNodes>
            0 -1 17 -2.0639583468437195e-02</internalNodes>
          <leafValues>
            7.5000000000000000e-01 -6.1904764175415039e-01</leafValues></_>
        <_>
          <internalNodes>
            0 -1 15 -1.2606813106685877e-04</internalNodes>
          <leafValues>
            -7.6788586378097534e-01 7.0624506473541260e-01</leafValues></_></weakClassifiers></_>
    <!-- stage 7 -->
    <_>
      <maxWeakCount>2</maxWeakCount>
      <stageThreshold>4.8996079713106155e-02</stageThreshold>
      <weakClassifiers>
        <_>
          <internalNodes>
            0 -1 13 -1.3944244384765625e-01</internalNodes>
          <leafValues>
            -6.5217393636703491e-01 8.6666667461395264e-01</leafValues></_>
        <_>
          <internalNodes>
            0 -1 21 -8.3723652642220259e-04</internalNodes>
          <leafValues>
            -8.1767058372497559e-01 7.9442322254180908e-01</leafValues></_></weakClassifiers></_>
    <!-- stage 8 -->
    <_>
      <maxWeakCount>2</maxWeakCount>
      <stageThreshold>9.7429305315017700e-02</stageThreshold>
      <weakClassifiers>
        <_>
          <internalNodes>
            0 -1 22 4.0222513489425182e-03</internalNodes>
          <leafValues>
            -4.2857143282890320e-01 9.2000001668930054e-01</leafValues></_>
        <_>
          <internalNodes>
            0 -1 4 1.8090307712554932e-03</internalNodes>
          <leafValues>
            7.2750657796859741e-01 -8.2257068157196045e-01</leafValues></_></weakClassifiers></_>
    <!-- stage 9 -->
    <_>
      <maxWeakCount>3</maxWeakCount>
      <stageThreshold>7.6934128999710083e-01</stageThreshold>
      <weakClassifiers>
        <_>
          <internalNodes>
            0 -1 16 -3.0676398426294327e-02</internalNodes>
          <leafValues>
            -7.8947371244430542e-01 7.6470589637756348e-01</leafValues></_>
        <_>
          <internalNodes>
            0 -1 20 -2.5998447090387344e-03</internalNodes>
          <leafValues>
            -8.6762511730194092e-01 6.9164252281188965e-01</leafValues></_>
        <_>
          <internalNodes>
            0 -1 2 -7.0729525759816170e-03</internalNodes>
          <leafValues>
            -6.2989419698715210e-01 8.7226051092147827e-01</leafValues></_></weakClassifiers></_>
    <!-- stage 10 -->
    <_>
      <maxWeakCount>3</maxWeakCount>
      <stageThreshold>-2.2303819656372070e-02</stageThreshold>
      <weakClassifiers>
        <_>
          <internalNodes>
            0 -1 7 -4.0626376867294312e-03</internalNodes>
          <leafValues>
            9.1666668653488159e-01 -3.7931033968925476e-01</leafValues></_>
        <_>
          <internalNodes>
            0 -1 18 -3.2094484195113182e-03</internalNodes>
          <leafValues>
            9.2384636402130127e-01 -5.0786602497100830e-01</leafValues></_>
        <_>
          <internalNodes>
            0 -1 8 -1.0444844141602516e-02</internalNodes>
          <leafValues>
            -4.3110448122024536e-01 1.</leafValues></_></weakClassifiers></_>
    <!-- stage 11 -->
    <_>
      <maxWeakCount>2</maxWeakCount>
      <stageThreshold>1.0058357293019071e-04</stageThreshold>
      <weakClassifiers>
        <_>
          <internalNodes>
            0 -1 0 4.1482403874397278e-02</internalNodes>
          <leafValues>
            7.7142858505249023e-01 -8.8888889551162720e-01</leafValues></_>
        <_>
          <internalNodes>
            0 -1 19 -9.2737544327974319e-03</internalNodes>
          <leafValues>
            8.8898944854736328e-01 -6.8462038040161133e-01</leafValues></_></weakClassifiers></_></stages>
  <features>
    <_>
      <rects>
        <_>
          0 3 19 20 -1.</_>
        <_>
          0 13 19 10 2.</_></rects>
      <tilted>0</tilted></_>
    <_>
      <rects>
        <_>
          0 4 18 20 -1.</_>
        <_>
          0 14 18 10 2.</_></rects>
      <tilted>0</tilted></_>
    <_>
      <rects>
        <_>
          0 7 10 12 -1.</_>
        <_>
          0 13 10 6 2.</_></rects>
      <tilted>0</tilted></_>
    <_>
      <rects>
        <_>
          0 20 24 4 -1.</_>
        <_>
          0 22 24 2 2.</_></rects>
      <tilted>0</tilted></_>
    <_>
      <rects>
        <_>
          1 1 3 18 -1.</_>
        <_>
          1 10 3 9 2.</_></rects>
      <tilted>0</tilted></_>
    <_>
      <rects>
        <_>
          1 9 6 5 -1.</_>
        <_>
          4 9 3 5 2.</_></rects>
      <tilted>0</tilted></_>
    <_>
      <rects>
        <_>
          1 19 3 4 -1.</_>
        <_>
          1 21 3 2 2.</_></rects>
      <tilted>0</tilted></_>
    <_>
      <rects>
        <_>
          2 2 4 4 -1.</_>
        <_>
          4 2 2 4 2.</_></rects>
      <tilted>0</tilted></_>
    <_>
      <rects>
        <_>
          2 8 21 6 -1.</_>
        <_>
          2 11 21 3 2.</_></rects>
      <tilted>0</tilted></_>
    <_>
      <rects>
        <_>
          2 22 3 2 -1.</_>
        <_>
          2 23 3 1 2.</_></rects>
      <tilted>0</tilted></_>
    <_>
      <rects>
        <_>
          4 9 18 2 -1.</_>
        <_>
          4 10 18 1 2.</_></rects>
      <tilted>0</tilted></_>
    <_>
      <rects>
        <_>
          5 3 10 12 -1.</_>
        <_>
          5 9 10 6 2.</_></rects>
      <tilted>0</tilted></_>
    <_>
      <rects>
        <_>
          7 19 10 4 -1.</_>
        <_>
          12 19 5 4 2.</_></rects>
      <tilted>0</tilted></_>
    <_>
      <rects>
        <_>
          8 5 12 4 -1.</_>
        <_>
          12 5 4 4 2.</_></rects>
      <tilted>0</tilted></_>
    <_>
      <rects>
        <_>
          9 7 1 6 -1.</_>
        <_>
          9 10 1 3 2.</_></rects>
      <tilted>0</tilted></_>
    <_>
      <rects>
        <_>
          10 16 12 2 -1.</_>
        <_>
          10 17 12 1 2.</_></rects>
      <tilted>0</tilted></_>
    <_>
      <rects>
        <_>
          12 0 9 1 -1.</_>
        <_>
          15 0 3 1 2.</_></rects>
      <tilted>0</tilted></_>
    <_>
      <rects>
        <_>
          13 0 4 24 -1.</_>
        <_>
          13 12 4 12 2.</_></rects>
      <tilted>0</tilted></_>
    <_>
      <rects>
        <_>
          13 7 6 3 -1.</_>
        <_>
          16 7 3 3 2.</_></rects>
      <tilted>0</tilted></_>
    <_>
      <rects>
        <_>
          15 2 2 16 -1.</_>
        <_>
          15 10 2 8 2.</_></rects>
      <tilted>0</tilted></_>
    <_>
      <rects>
        <_>
          15 11 4 6 -1.</_>
        <_>
          15 11 2 3 2.</_>
        <_>
          17 14 2 3 2.</_></rects>
      <tilted>0</tilted></_>
    <_>
      <rects>
        <_>
          15 11 4 4 -1.</_>
        <_>
          15 13 4 2 2.</_></rects>
      <tilted>0</tilted></_>
    <_>
      <rects>
        <_>
          18 6 6 4 -1.</_>
        <_>
          21 6 3 4 2.</_></rects>
      <tilted>0</tilted></_>
    <_>
      <rects>
        <_>
          18 8 6 10 -1.</_>
        <_>
          18 8 3 5 2.</_>
        <_>
          21 13 3 5 2.</_></rects>
      <tilted>0</tilted></_></features></cascade>
</opencv_storage>
